digraph Tree {
node [shape=box, fontname="helvetica"] ;
edge [fontname="helvetica"] ;
0 [label="solarradiation <= 396.5\nsquared_error = 179858586.335\nsamples = 917\nvalue = 14108.339"] ;
1 [label="solarradiation <= 158.5\nsquared_error = 43334457.522\nsamples = 584\nvalue = 5977.318"] ;
0 -> 1 [labeldistance=2.5, labelangle=45, headlabel="True"] ;
5 [label="solarradiation <= 83.0\nsquared_error = 10216413.294\nsamples = 380\nvalue = 2893.945"] ;
1 -> 5 ;
23 [label="squared_error = 6534893.148\nsamples = 256\nvalue = 1862.699"] ;
5 -> 23 ;
24 [label="hour <= 13.5\nsquared_error = 11088686.628\nsamples = 124\nvalue = 5022.968"] ;
5 -> 24 ;
53 [label="squared_error = 10239598.142\nsamples = 61\nvalue = 6607.295"] ;
24 -> 53 ;
54 [label="squared_error = 7127160.472\nsamples = 63\nvalue = 3488.937"] ;
24 -> 54 ;
6 [label="hour <= 14.5\nsquared_error = 54327209.298\nsamples = 204\nvalue = 11720.858"] ;
1 -> 6 ;
7 [label="cloudcoverage <= 90.5\nsquared_error = 58137156.076\nsamples = 115\nvalue = 14967.504"] ;
6 -> 7 ;
17 [label="calendarweek <= 15.0\nsquared_error = 56322597.091\nsamples = 83\nvalue = 17061.337"] ;
7 -> 17 ;
19 [label="cloudcoverage <= 46.5\nsquared_error = 49404301.178\nsamples = 40\nvalue = 20614.85"] ;
17 -> 19 ;
29 [label="solarradiation <= 223.5\nsquared_error = 20433124.621\nsamples = 16\nvalue = 25256.438"] ;
19 -> 29 ;
57 [label="squared_error = 7935475.139\nsamples = 6\nvalue = 20509.833"] ;
29 -> 57 ;
58 [label="squared_error = 6302673.24\nsamples = 10\nvalue = 28104.4"] ;
29 -> 58 ;
30 [label="solarradiation <= 303.0\nsquared_error = 44780269.415\nsamples = 24\nvalue = 17520.458"] ;
19 -> 30 ;
43 [label="squared_error = 33916437.087\nsamples = 17\nvalue = 15087.824"] ;
30 -> 43 ;
44 [label="squared_error = 21889851.347\nsamples = 7\nvalue = 23428.286"] ;
30 -> 44 ;
20 [label="hour <= 10.5\nsquared_error = 40084807.911\nsamples = 43\nvalue = 13755.744"] ;
17 -> 20 ;
33 [label="squared_error = 8441957.026\nsamples = 28\nvalue = 11404.214"] ;
20 -> 33 ;
34 [label="squared_error = 69561461.929\nsamples = 15\nvalue = 18145.267"] ;
20 -> 34 ;
18 [label="squared_error = 21977863.547\nsamples = 32\nvalue = 9536.625"] ;
7 -> 18 ;
8 [label="solarradiation <= 310.0\nsquared_error = 18185315.018\nsamples = 89\nvalue = 7525.753"] ;
6 -> 8 ;
37 [label="squared_error = 8386557.369\nsamples = 57\nvalue = 6015.561"] ;
8 -> 37 ;
38 [label="squared_error = 24340641.233\nsamples = 32\nvalue = 10215.781"] ;
8 -> 38 ;
2 [label="solarradiation <= 690.0\nsquared_error = 99999372.204\nsamples = 333\nvalue = 28368.147"] ;
0 -> 2 [labeldistance=2.5, labelangle=-45, headlabel="False"] ;
3 [label="hour <= 16.5\nsquared_error = 84470737.12\nsamples = 187\nvalue = 23243.091"] ;
2 -> 3 ;
9 [label="hour <= 9.5\nsquared_error = 80329179.88\nsamples = 160\nvalue = 24661.212"] ;
3 -> 9 ;
11 [label="squared_error = 6051335.64\nsamples = 10\nvalue = 10014.4"] ;
9 -> 11 ;
12 [label="humidity <= 41.5\nsquared_error = 70025632.329\nsamples = 150\nvalue = 25637.667"] ;
9 -> 12 ;
15 [label="solarradiation <= 460.5\nsquared_error = 60200922.021\nsamples = 46\nvalue = 30110.391"] ;
12 -> 15 ;
25 [label="squared_error = 13653995.438\nsamples = 8\nvalue = 21358.75"] ;
15 -> 25 ;
26 [label="hour <= 13.5\nsquared_error = 50481181.501\nsamples = 38\nvalue = 31952.842"] ;
15 -> 26 ;
27 [label="calendarweek <= 13.0\nsquared_error = 20012609.274\nsamples = 23\nvalue = 35438.826"] ;
26 -> 27 ;
55 [label="squared_error = 8922327.652\nsamples = 16\nvalue = 37533.812"] ;
27 -> 55 ;
56 [label="squared_error = 12399778.49\nsamples = 7\nvalue = 30650.286"] ;
27 -> 56 ;
28 [label="squared_error = 49995562.489\nsamples = 15\nvalue = 26607.667"] ;
26 -> 28 ;
16 [label="solarradiation <= 632.5\nsquared_error = 61608942.322\nsamples = 104\nvalue = 23659.346"] ;
12 -> 16 ;
45 [label="wind <= 20.5\nsquared_error = 57041329.912\nsamples = 77\nvalue = 22620.519"] ;
16 -> 45 ;
49 [label="squared_error = 54499766.552\nsamples = 59\nvalue = 21393.915"] ;
45 -> 49 ;
50 [label="squared_error = 44275692.941\nsamples = 18\nvalue = 26641.056"] ;
45 -> 50 ;
46 [label="calendarweek <= 18.5\nsquared_error = 62780610.439\nsamples = 27\nvalue = 26621.926"] ;
16 -> 46 ;
47 [label="squared_error = 34512994.889\nsamples = 6\nvalue = 34878.333"] ;
46 -> 47 ;
48 [label="solarradiation <= 664.5\nsquared_error = 45815669.188\nsamples = 21\nvalue = 24262.952"] ;
46 -> 48 ;
51 [label="squared_error = 29556354.025\nsamples = 9\nvalue = 29021.556"] ;
48 -> 51 ;
52 [label="squared_error = 28289506.333\nsamples = 12\nvalue = 20694.0"] ;
48 -> 52 ;
10 [label="calendarweek <= 20.5\nsquared_error = 26473957.13\nsamples = 27\nvalue = 14839.407"] ;
3 -> 10 ;
59 [label="squared_error = 22184044.352\nsamples = 14\nvalue = 17453.071"] ;
10 -> 59 ;
60 [label="squared_error = 15814522.521\nsamples = 13\nvalue = 12024.692"] ;
10 -> 60 ;
4 [label="temperature <= 26.5\nsquared_error = 43156632.711\nsamples = 146\nvalue = 34932.432"] ;
2 -> 4 ;
13 [label="hour <= 15.5\nsquared_error = 28396072.146\nsamples = 102\nvalue = 37026.029"] ;
4 -> 13 ;
21 [label="cloudcoverage <= 33.0\nsquared_error = 20384147.347\nsamples = 91\nvalue = 38064.714"] ;
13 -> 21 ;
31 [label="squared_error = 6089065.333\nsamples = 48\nvalue = 40171.479"] ;
21 -> 31 ;
32 [label="solarradiation <= 822.0\nsquared_error = 25856220.674\nsamples = 43\nvalue = 35712.977"] ;
21 -> 32 ;
61 [label="squared_error = 30356086.648\nsamples = 20\nvalue = 33412.95"] ;
32 -> 61 ;
62 [label="squared_error = 13343093.739\nsamples = 23\nvalue = 37713.0"] ;
32 -> 62 ;
22 [label="squared_error = 11915907.107\nsamples = 11\nvalue = 28433.273"] ;
13 -> 22 ;
14 [label="solarradiation <= 891.0\nsquared_error = 43658437.174\nsamples = 44\nvalue = 30079.091"] ;
4 -> 14 ;
35 [label="cloudcoverage <= 46.5\nsquared_error = 44022886.796\nsamples = 30\nvalue = 27973.067"] ;
14 -> 35 ;
39 [label="squared_error = 11965716.625\nsamples = 16\nvalue = 31211.0"] ;
35 -> 39 ;
40 [label="solarradiation <= 768.5\nsquared_error = 54984030.816\nsamples = 14\nvalue = 24272.571"] ;
35 -> 40 ;
41 [label="squared_error = 31081761.109\nsamples = 8\nvalue = 28640.875"] ;
40 -> 41 ;
42 [label="squared_error = 27487264.806\nsamples = 6\nvalue = 18448.167"] ;
40 -> 42 ;
36 [label="squared_error = 13006829.286\nsamples = 14\nvalue = 34592.0"] ;
14 -> 36 ;
}